digraph Tree {
node [shape=box] ;
0 [label="X[458] <= 0.5\ngini = 0.773\nsamples = 527\nvalue = [93, 82, 146, 153, 53]"] ;
1 [label="X[410] <= 0.5\ngini = 0.769\nsamples = 519\nvalue = [93, 82, 146, 153, 45]"] ;
0 -> 1 [labeldistance=2.5, labelangle=45, headlabel="True"] ;
2 [label="X[675] <= 0.5\ngini = 0.765\nsamples = 438\nvalue = [82, 73, 138, 114, 31]"] ;
1 -> 2 ;
3 [label="X[706] <= 95.5\ngini = 0.766\nsamples = 407\nvalue = [74, 73, 135, 94, 31]"] ;
2 -> 3 ;
4 [label="X[127] <= 0.5\ngini = 0.707\nsamples = 147\nvalue = [35, 23, 65, 18, 6]"] ;
3 -> 4 ;
5 [label="X[467] <= 0.5\ngini = 0.693\nsamples = 141\nvalue = [35, 17, 65, 18, 6]"] ;
4 -> 5 ;
6 [label="X[638] <= 0.5\ngini = 0.679\nsamples = 136\nvalue = [35, 17, 65, 13, 6]"] ;
5 -> 6 ;
7 [label="X[706] <= 88.0\ngini = 0.671\nsamples = 130\nvalue = [29, 17, 65, 13, 6]"] ;
6 -> 7 ;
8 [label="X[399] <= 0.5\ngini = 0.705\nsamples = 110\nvalue = [29, 16, 48, 12, 5]"] ;
7 -> 8 ;
9 [label="X[645] <= 0.5\ngini = 0.729\nsamples = 100\nvalue = [29, 16, 38, 12, 5]"] ;
8 -> 9 ;
10 [label="X[706] <= 71.5\ngini = 0.714\nsamples = 97\nvalue = [29, 16, 38, 12, 2]"] ;
9 -> 10 ;
11 [label="X[560] <= 0.5\ngini = 0.679\nsamples = 84\nvalue = [27, 10, 37, 8, 2]"] ;
10 -> 11 ;
12 [label="X[237] <= 3.25\ngini = 0.661\nsamples = 81\nvalue = [27, 10, 37, 5, 2]"] ;
11 -> 12 ;
13 [label="X[171] <= 0.5\ngini = 0.729\nsamples = 30\nvalue = [11, 8, 7, 3, 1]"] ;
12 -> 13 ;
14 [label="X[706] <= 65.0\ngini = 0.711\nsamples = 27\nvalue = [11, 8, 4, 3, 1]"] ;
13 -> 14 ;
15 [label="X[395] <= 0.5\ngini = 0.607\nsamples = 22\nvalue = [11, 8, 2, 1, 0]"] ;
14 -> 15 ;
16 [label="X[586] <= 0.5\ngini = 0.582\nsamples = 19\nvalue = [11, 5, 2, 1, 0]"] ;
15 -> 16 ;
17 [label="X[402] <= 0.5\ngini = 0.492\nsamples = 16\nvalue = [11, 2, 2, 1, 0]"] ;
16 -> 17 ;
18 [label="X[146] <= 0.5\ngini = 0.272\nsamples = 13\nvalue = [11, 1, 1, 0, 0]"] ;
17 -> 18 ;
19 [label="X[684] <= 0.5\ngini = 0.153\nsamples = 12\nvalue = [11, 0, 1, 0, 0]"] ;
18 -> 19 ;
20 [label="gini = 0.0\nsamples = 11\nvalue = [11, 0, 0, 0, 0]"] ;
19 -> 20 ;
21 [label="gini = 0.0\nsamples = 1\nvalue = [0, 0, 1, 0, 0]"] ;
19 -> 21 ;
22 [label="gini = 0.0\nsamples = 1\nvalue = [0, 1, 0, 0, 0]"] ;
18 -> 22 ;
23 [label="X[426] <= 0.5\ngini = 0.667\nsamples = 3\nvalue = [0, 1, 1, 1, 0]"] ;
17 -> 23 ;
24 [label="X[612] <= 0.5\ngini = 0.5\nsamples = 2\nvalue = [0, 1, 1, 0, 0]"] ;
23 -> 24 ;
25 [label="gini = 0.0\nsamples = 1\nvalue = [0, 1, 0, 0, 0]"] ;
24 -> 25 ;
26 [label="gini = 0.0\nsamples = 1\nvalue = [0, 0, 1, 0, 0]"] ;
24 -> 26 ;
27 [label="gini = 0.0\nsamples = 1\nvalue = [0, 0, 0, 1, 0]"] ;
23 -> 27 ;
28 [label="gini = 0.0\nsamples = 3\nvalue = [0, 3, 0, 0, 0]"] ;
16 -> 28 ;
29 [label="gini = 0.0\nsamples = 3\nvalue = [0, 3, 0, 0, 0]"] ;
15 -> 29 ;
30 [label="X[706] <= 69.5\ngini = 0.64\nsamples = 5\nvalue = [0, 0, 2, 2, 1]"] ;
14 -> 30 ;
31 [label="gini = 0.0\nsamples = 2\nvalue = [0, 0, 0, 2, 0]"] ;
30 -> 31 ;
32 [label="X[208] <= 0.5\ngini = 0.444\nsamples = 3\nvalue = [0, 0, 2, 0, 1]"] ;
30 -> 32 ;
33 [label="gini = 0.0\nsamples = 2\nvalue = [0, 0, 2, 0, 0]"] ;
32 -> 33 ;
34 [label="gini = 0.0\nsamples = 1\nvalue = [0, 0, 0, 0, 1]"] ;
32 -> 34 ;
35 [label="gini = 0.0\nsamples = 3\nvalue = [0, 0, 3, 0, 0]"] ;
13 -> 35 ;
36 [label="X[402] <= 0.5\ngini = 0.552\nsamples = 51\nvalue = [16, 2, 30, 2, 1]"] ;
12 -> 36 ;
37 [label="X[61] <= 0.5\ngini = 0.474\nsamples = 40\nvalue = [7, 2, 28, 2, 1]"] ;
36 -> 37 ;
38 [label="X[75] <= 0.5\ngini = 0.381\nsamples = 36\nvalue = [3, 2, 28, 2, 1]"] ;
37 -> 38 ;
39 [label="X[237] <= 4.25\ngini = 0.272\nsamples = 33\nvalue = [0, 2, 28, 2, 1]"] ;
38 -> 39 ;
40 [label="X[397] <= 0.5\ngini = 0.131\nsamples = 29\nvalue = [0, 1, 27, 1, 0]"] ;
39 -> 40 ;
41 [label="X[293] <= 0.5\ngini = 0.069\nsamples = 28\nvalue = [0, 1, 27, 0, 0]"] ;
40 -> 41 ;
42 [label="gini = 0.0\nsamples = 27\nvalue = [0, 0, 27, 0, 0]"] ;
41 -> 42 ;
43 [label="gini = 0.0\nsamples = 1\nvalue = [0, 1, 0, 0, 0]"] ;
41 -> 43 ;
44 [label="gini = 0.0\nsamples = 1\nvalue = [0, 0, 0, 1, 0]"] ;
40 -> 44 ;
45 [label="X[255] <= 0.5\ngini = 0.75\nsamples = 4\nvalue = [0, 1, 1, 1, 1]"] ;
39 -> 45 ;
46 [label="X[200] <= 0.5\ngini = 0.667\nsamples = 3\nvalue = [0, 1, 1, 1, 0]"] ;
45 -> 46 ;
47 [label="X[636] <= 0.5\ngini = 0.5\nsamples = 2\nvalue = [0, 1, 1, 0, 0]"] ;
46 -> 47 ;
48 [label="gini = 0.0\nsamples = 1\nvalue = [0, 1, 0, 0, 0]"] ;
47 -> 48 ;
49 [label="gini = 0.0\nsamples = 1\nvalue = [0, 0, 1, 0, 0]"] ;
47 -> 49 ;
50 [label="gini = 0.0\nsamples = 1\nvalue = [0, 0, 0, 1, 0]"] ;
46 -> 50 ;
51 [label="gini = 0.0\nsamples = 1\nvalue = [0, 0, 0, 0, 1]"] ;
45 -> 51 ;
52 [label="gini = 0.0\nsamples = 3\nvalue = [3, 0, 0, 0, 0]"] ;
38 -> 52 ;
53 [label="gini = 0.0\nsamples = 4\nvalue = [4, 0, 0, 0, 0]"] ;
37 -> 53 ;
54 [label="X[67] <= 0.5\ngini = 0.298\nsamples = 11\nvalue = [9, 0, 2, 0, 0]"] ;
36 -> 54 ;
55 [label="X[378] <= 0.5\ngini = 0.18\nsamples = 10\nvalue = [9, 0, 1, 0, 0]"] ;
54 -> 55 ;
56 [label="gini = 0.0\nsamples = 9\nvalue = [9, 0, 0, 0, 0]"] ;
55 -> 56 ;
57 [label="gini = 0.0\nsamples = 1\nvalue = [0, 0, 1, 0, 0]"] ;
55 -> 57 ;
58 [label="gini = 0.0\nsamples = 1\nvalue = [0, 0, 1, 0, 0]"] ;
54 -> 58 ;
59 [label="gini = 0.0\nsamples = 3\nvalue = [0, 0, 0, 3, 0]"] ;
11 -> 59 ;
60 [label="X[237] <= 3.25\ngini = 0.663\nsamples = 13\nvalue = [2, 6, 1, 4, 0]"] ;
10 -> 60 ;
61 [label="gini = 0.0\nsamples = 4\nvalue = [0, 0, 0, 4, 0]"] ;
60 -> 61 ;
62 [label="X[706] <= 81.5\ngini = 0.494\nsamples = 9\nvalue = [2, 6, 1, 0, 0]"] ;
60 -> 62 ;
63 [label="gini = 0.0\nsamples = 6\nvalue = [0, 6, 0, 0, 0]"] ;
62 -> 63 ;
64 [label="X[491] <= 0.5\ngini = 0.444\nsamples = 3\nvalue = [2, 0, 1, 0, 0]"] ;
62 -> 64 ;
65 [label="gini = 0.0\nsamples = 2\nvalue = [2, 0, 0, 0, 0]"] ;
64 -> 65 ;
66 [label="gini = 0.0\nsamples = 1\nvalue = [0, 0, 1, 0, 0]"] ;
64 -> 66 ;
67 [label="gini = 0.0\nsamples = 3\nvalue = [0, 0, 0, 0, 3]"] ;
9 -> 67 ;
68 [label="gini = 0.0\nsamples = 10\nvalue = [0, 0, 10, 0, 0]"] ;
8 -> 68 ;
69 [label="X[402] <= 0.5\ngini = 0.27\nsamples = 20\nvalue = [0, 1, 17, 1, 1]"] ;
7 -> 69 ;
70 [label="X[155] <= 0.5\ngini = 0.105\nsamples = 18\nvalue = [0, 1, 17, 0, 0]"] ;
69 -> 70 ;
71 [label="gini = 0.0\nsamples = 17\nvalue = [0, 0, 17, 0, 0]"] ;
70 -> 71 ;
72 [label="gini = 0.0\nsamples = 1\nvalue = [0, 1, 0, 0, 0]"] ;
70 -> 72 ;
73 [label="X[698] <= 0.5\ngini = 0.5\nsamples = 2\nvalue = [0, 0, 0, 1, 1]"] ;
69 -> 73 ;
74 [label="gini = 0.0\nsamples = 1\nvalue = [0, 0, 0, 1, 0]"] ;
73 -> 74 ;
75 [label="gini = 0.0\nsamples = 1\nvalue = [0, 0, 0, 0, 1]"] ;
73 -> 75 ;
76 [label="gini = 0.0\nsamples = 6\nvalue = [6, 0, 0, 0, 0]"] ;
6 -> 76 ;
77 [label="gini = 0.0\nsamples = 5\nvalue = [0, 0, 0, 5, 0]"] ;
5 -> 77 ;
78 [label="gini = 0.0\nsamples = 6\nvalue = [0, 6, 0, 0, 0]"] ;
4 -> 78 ;
79 [label="X[649] <= 0.5\ngini = 0.773\nsamples = 260\nvalue = [39, 50, 70, 76, 25]"] ;
3 -> 79 ;
80 [label="X[505] <= 0.5\ngini = 0.765\nsamples = 253\nvalue = [39, 50, 70, 76, 18]"] ;
79 -> 80 ;
81 [label="X[706] <= 936.0\ngini = 0.758\nsamples = 248\nvalue = [39, 50, 70, 76, 13]"] ;
80 -> 81 ;
82 [label="X[706] <= 108.5\ngini = 0.756\nsamples = 231\nvalue = [39, 39, 66, 74, 13]"] ;
81 -> 82 ;
83 [label="X[407] <= 0.5\ngini = 0.576\nsamples = 21\nvalue = [0, 11, 1, 8, 1]"] ;
82 -> 83 ;
84 [label="X[357] <= 0.5\ngini = 0.602\nsamples = 16\nvalue = [0, 6, 1, 8, 1]"] ;
83 -> 84 ;
85 [label="X[193] <= 0.5\ngini = 0.444\nsamples = 12\nvalue = [0, 4, 0, 8, 0]"] ;
84 -> 85 ;
86 [label="X[535] <= 0.5\ngini = 0.32\nsamples = 10\nvalue = [0, 2, 0, 8, 0]"] ;
85 -> 86 ;
87 [label="X[701] <= 0.5\ngini = 0.198\nsamples = 9\nvalue = [0, 1, 0, 8, 0]"] ;
86 -> 87 ;
88 [label="gini = 0.0\nsamples = 8\nvalue = [0, 0, 0, 8, 0]"] ;
87 -> 88 ;
89 [label="gini = 0.0\nsamples = 1\nvalue = [0, 1, 0, 0, 0]"] ;
87 -> 89 ;
90 [label="gini = 0.0\nsamples = 1\nvalue = [0, 1, 0, 0, 0]"] ;
86 -> 90 ;
91 [label="gini = 0.0\nsamples = 2\nvalue = [0, 2, 0, 0, 0]"] ;
85 -> 91 ;
92 [label="X[510] <= 0.5\ngini = 0.625\nsamples = 4\nvalue = [0, 2, 1, 0, 1]"] ;
84 -> 92 ;
93 [label="X[107] <= 0.5\ngini = 0.444\nsamples = 3\nvalue = [0, 2, 1, 0, 0]"] ;
92 -> 93 ;
94 [label="gini = 0.0\nsamples = 2\nvalue = [0, 2, 0, 0, 0]"] ;
93 -> 94 ;
95 [label="gini = 0.0\nsamples = 1\nvalue = [0, 0, 1, 0, 0]"] ;
93 -> 95 ;
96 [label="gini = 0.0\nsamples = 1\nvalue = [0, 0, 0, 0, 1]"] ;
92 -> 96 ;
97 [label="gini = 0.0\nsamples = 5\nvalue = [0, 5, 0, 0, 0]"] ;
83 -> 97 ;
98 [label="X[175] <= 0.5\ngini = 0.75\nsamples = 210\nvalue = [39, 28, 65, 66, 12]"] ;
82 -> 98 ;
99 [label="X[607] <= 0.5\ngini = 0.744\nsamples = 205\nvalue = [39, 23, 65, 66, 12]"] ;
98 -> 99 ;
100 [label="X[142] <= 0.5\ngini = 0.735\nsamples = 201\nvalue = [39, 23, 65, 66, 8]"] ;
99 -> 100 ;
101 [label="X[644] <= 0.5\ngini = 0.729\nsamples = 197\nvalue = [39, 19, 65, 66, 8]"] ;
100 -> 101 ;
102 [label="X[411] <= 0.5\ngini = 0.731\nsamples = 184\nvalue = [36, 19, 55, 66, 8]"] ;
101 -> 102 ;
103 [label="X[132] <= 0.5\ngini = 0.723\nsamples = 181\nvalue = [36, 19, 55, 66, 5]"] ;
102 -> 103 ;
104 [label="X[588] <= 0.5\ngini = 0.715\nsamples = 178\nvalue = [36, 19, 55, 66, 2]"] ;
103 -> 104 ;
105 [label="X[541] <= 0.5\ngini = 0.71\nsamples = 174\nvalue = [32, 19, 55, 66, 2]"] ;
104 -> 105 ;
106 [label="X[163] <= 0.5\ngini = 0.705\nsamples = 170\nvalue = [28, 19, 55, 66, 2]"] ;
105 -> 106 ;
107 [label="X[126] <= 0.5\ngini = 0.698\nsamples = 166\nvalue = [24, 19, 55, 66, 2]"] ;
106 -> 107 ;
108 [label="X[434] <= 0.5\ngini = 0.699\nsamples = 161\nvalue = [24, 19, 50, 66, 2]"] ;
107 -> 108 ;
109 [label="X[461] <= 0.5\ngini = 0.699\nsamples = 156\nvalue = [24, 19, 45, 66, 2]"] ;
108 -> 109 ;
110 [label="X[666] <= 0.5\ngini = 0.698\nsamples = 151\nvalue = [24, 19, 40, 66, 2]"] ;
109 -> 110 ;
111 [label="X[706] <= 175.0\ngini = 0.711\nsamples = 119\nvalue = [24, 11, 37, 45, 2]"] ;
110 -> 111 ;
112 [label="X[91] <= 0.5\ngini = 0.699\nsamples = 58\nvalue = [16, 3, 24, 13, 2]"] ;
111 -> 112 ;
113 [label="X[609] <= 0.5\ngini = 0.676\nsamples = 53\nvalue = [16, 3, 24, 8, 2]"] ;
112 -> 113 ;
114 [label="X[10] <= 0.5\ngini = 0.64\nsamples = 50\nvalue = [16, 0, 24, 8, 2]"] ;
113 -> 114 ;
115 [label="X[501] <= 0.5\ngini = 0.61\nsamples = 47\nvalue = [16, 0, 24, 5, 2]"] ;
114 -> 115 ;
116 [label="X[116] <= 0.5\ngini = 0.577\nsamples = 45\nvalue = [16, 0, 24, 5, 0]"] ;
115 -> 116 ;
117 [label="X[599] <= 0.5\ngini = 0.545\nsamples = 43\nvalue = [16, 0, 24, 3, 0]"] ;
116 -> 117 ;
118 [label="X[633] <= 0.5\ngini = 0.529\nsamples = 40\nvalue = [13, 0, 24, 3, 0]"] ;
117 -> 118 ;
119 [label="X[590] <= 0.5\ngini = 0.5\nsamples = 37\nvalue = [10, 0, 24, 3, 0]"] ;
118 -> 119 ;
120 [label="gini = 0.452\nsamples = 34\nvalue = [7, 0, 24, 3, 0]"] ;
119 -> 120 ;
121 [label="gini = 0.0\nsamples = 3\nvalue = [3, 0, 0, 0, 0]"] ;
119 -> 121 ;
122 [label="gini = 0.0\nsamples = 3\nvalue = [3, 0, 0, 0, 0]"] ;
118 -> 122 ;
123 [label="gini = 0.0\nsamples = 3\nvalue = [3, 0, 0, 0, 0]"] ;
117 -> 123 ;
124 [label="gini = 0.0\nsamples = 2\nvalue = [0, 0, 0, 2, 0]"] ;
116 -> 124 ;
125 [label="gini = 0.0\nsamples = 2\nvalue = [0, 0, 0, 0, 2]"] ;
115 -> 125 ;
126 [label="gini = 0.0\nsamples = 3\nvalue = [0, 0, 0, 3, 0]"] ;
114 -> 126 ;
127 [label="gini = 0.0\nsamples = 3\nvalue = [0, 3, 0, 0, 0]"] ;
113 -> 127 ;
128 [label="gini = 0.0\nsamples = 5\nvalue = [0, 0, 0, 5, 0]"] ;
112 -> 128 ;
129 [label="X[706] <= 223.0\ngini = 0.645\nsamples = 61\nvalue = [8, 8, 13, 32, 0]"] ;
111 -> 129 ;
130 [label="X[339] <= 0.5\ngini = 0.111\nsamples = 17\nvalue = [1, 0, 0, 16, 0]"] ;
129 -> 130 ;
131 [label="gini = 0.0\nsamples = 16\nvalue = [0, 0, 0, 16, 0]"] ;
130 -> 131 ;
132 [label="gini = 0.0\nsamples = 1\nvalue = [1, 0, 0, 0, 0]"] ;
130 -> 132 ;
133 [label="X[237] <= 3.25\ngini = 0.722\nsamples = 44\nvalue = [7, 8, 13, 16, 0]"] ;
129 -> 133 ;
134 [label="X[642] <= 0.5\ngini = 0.346\nsamples = 9\nvalue = [2, 0, 7, 0, 0]"] ;
133 -> 134 ;
135 [label="gini = 0.0\nsamples = 7\nvalue = [0, 0, 7, 0, 0]"] ;
134 -> 135 ;
136 [label="gini = 0.0\nsamples = 2\nvalue = [2, 0, 0, 0, 0]"] ;
134 -> 136 ;
137 [label="X[706] <= 335.0\ngini = 0.689\nsamples = 35\nvalue = [5, 8, 6, 16, 0]"] ;
133 -> 137 ;
138 [label="X[706] <= 267.0\ngini = 0.494\nsamples = 9\nvalue = [1, 6, 2, 0, 0]"] ;
137 -> 138 ;
139 [label="gini = 0.0\nsamples = 2\nvalue = [0, 0, 2, 0, 0]"] ;
138 -> 139 ;
140 [label="X[604] <= 0.5\ngini = 0.245\nsamples = 7\nvalue = [1, 6, 0, 0, 0]"] ;
138 -> 140 ;
141 [label="gini = 0.0\nsamples = 6\nvalue = [0, 6, 0, 0, 0]"] ;
140 -> 141 ;
142 [label="gini = 0.0\nsamples = 1\nvalue = [1, 0, 0, 0, 0]"] ;
140 -> 142 ;
143 [label="X[402] <= 0.5\ngini = 0.568\nsamples = 26\nvalue = [4, 2, 4, 16, 0]"] ;
137 -> 143 ;
144 [label="X[594] <= 0.5\ngini = 0.444\nsamples = 21\nvalue = [4, 2, 0, 15, 0]"] ;
143 -> 144 ;
145 [label="X[647] <= 0.5\ngini = 0.29\nsamples = 18\nvalue = [1, 2, 0, 15, 0]"] ;
144 -> 145 ;
146 [label="X[638] <= 0.5\ngini = 0.117\nsamples = 16\nvalue = [1, 0, 0, 15, 0]"] ;
145 -> 146 ;
147 [label="gini = 0.0\nsamples = 15\nvalue = [0, 0, 0, 15, 0]"] ;
146 -> 147 ;
148 [label="gini = 0.0\nsamples = 1\nvalue = [1, 0, 0, 0, 0]"] ;
146 -> 148 ;
149 [label="gini = 0.0\nsamples = 2\nvalue = [0, 2, 0, 0, 0]"] ;
145 -> 149 ;
150 [label="gini = 0.0\nsamples = 3\nvalue = [3, 0, 0, 0, 0]"] ;
144 -> 150 ;
151 [label="X[701] <= 0.5\ngini = 0.32\nsamples = 5\nvalue = [0, 0, 4, 1, 0]"] ;
143 -> 151 ;
152 [label="gini = 0.0\nsamples = 4\nvalue = [0, 0, 4, 0, 0]"] ;
151 -> 152 ;
153 [label="gini = 0.0\nsamples = 1\nvalue = [0, 0, 0, 1, 0]"] ;
151 -> 153 ;
154 [label="X[706] <= 155.0\ngini = 0.498\nsamples = 32\nvalue = [0, 8, 3, 21, 0]"] ;
110 -> 154 ;
155 [label="X[525] <= 0.5\ngini = 0.117\nsamples = 16\nvalue = [0, 1, 0, 15, 0]"] ;
154 -> 155 ;
156 [label="gini = 0.0\nsamples = 15\nvalue = [0, 0, 0, 15, 0]"] ;
155 -> 156 ;
157 [label="gini = 0.0\nsamples = 1\nvalue = [0, 1, 0, 0, 0]"] ;
155 -> 157 ;
158 [label="X[611] <= 0.5\ngini = 0.633\nsamples = 16\nvalue = [0, 7, 3, 6, 0]"] ;
154 -> 158 ;
159 [label="X[518] <= 0.5\ngini = 0.569\nsamples = 12\nvalue = [0, 7, 3, 2, 0]"] ;
158 -> 159 ;
160 [label="X[87] <= 0.5\ngini = 0.46\nsamples = 10\nvalue = [0, 7, 1, 2, 0]"] ;
159 -> 160 ;
161 [label="X[565] <= 0.5\ngini = 0.346\nsamples = 9\nvalue = [0, 7, 0, 2, 0]"] ;
160 -> 161 ;
162 [label="X[469] <= 0.5\ngini = 0.219\nsamples = 8\nvalue = [0, 7, 0, 1, 0]"] ;
161 -> 162 ;
163 [label="gini = 0.0\nsamples = 7\nvalue = [0, 7, 0, 0, 0]"] ;
162 -> 163 ;
164 [label="gini = 0.0\nsamples = 1\nvalue = [0, 0, 0, 1, 0]"] ;
162 -> 164 ;
165 [label="gini = 0.0\nsamples = 1\nvalue = [0, 0, 0, 1, 0]"] ;
161 -> 165 ;
166 [label="gini = 0.0\nsamples = 1\nvalue = [0, 0, 1, 0, 0]"] ;
160 -> 166 ;
167 [label="gini = 0.0\nsamples = 2\nvalue = [0, 0, 2, 0, 0]"] ;
159 -> 167 ;
168 [label="gini = 0.0\nsamples = 4\nvalue = [0, 0, 0, 4, 0]"] ;
158 -> 168 ;
169 [label="gini = 0.0\nsamples = 5\nvalue = [0, 0, 5, 0, 0]"] ;
109 -> 169 ;
170 [label="gini = 0.0\nsamples = 5\nvalue = [0, 0, 5, 0, 0]"] ;
108 -> 170 ;
171 [label="gini = 0.0\nsamples = 5\nvalue = [0, 0, 5, 0, 0]"] ;
107 -> 171 ;
172 [label="gini = 0.0\nsamples = 4\nvalue = [4, 0, 0, 0, 0]"] ;
106 -> 172 ;
173 [label="gini = 0.0\nsamples = 4\nvalue = [4, 0, 0, 0, 0]"] ;
105 -> 173 ;
174 [label="gini = 0.0\nsamples = 4\nvalue = [4, 0, 0, 0, 0]"] ;
104 -> 174 ;
175 [label="gini = 0.0\nsamples = 3\nvalue = [0, 0, 0, 0, 3]"] ;
103 -> 175 ;
176 [label="gini = 0.0\nsamples = 3\nvalue = [0, 0, 0, 0, 3]"] ;
102 -> 176 ;
177 [label="X[415] <= 0.5\ngini = 0.355\nsamples = 13\nvalue = [3, 0, 10, 0, 0]"] ;
101 -> 177 ;
178 [label="X[617] <= 0.5\ngini = 0.165\nsamples = 11\nvalue = [1, 0, 10, 0, 0]"] ;
177 -> 178 ;
179 [label="gini = 0.0\nsamples = 10\nvalue = [0, 0, 10, 0, 0]"] ;
178 -> 179 ;
180 [label="gini = 0.0\nsamples = 1\nvalue = [1, 0, 0, 0, 0]"] ;
178 -> 180 ;
181 [label="gini = 0.0\nsamples = 2\nvalue = [2, 0, 0, 0, 0]"] ;
177 -> 181 ;
182 [label="gini = 0.0\nsamples = 4\nvalue = [0, 4, 0, 0, 0]"] ;
100 -> 182 ;
183 [label="gini = 0.0\nsamples = 4\nvalue = [0, 0, 0, 0, 4]"] ;
99 -> 183 ;
184 [label="gini = 0.0\nsamples = 5\nvalue = [0, 5, 0, 0, 0]"] ;
98 -> 184 ;
185 [label="X[706] <= 1401.5\ngini = 0.512\nsamples = 17\nvalue = [0, 11, 4, 2, 0]"] ;
81 -> 185 ;
186 [label="gini = 0.0\nsamples = 11\nvalue = [0, 11, 0, 0, 0]"] ;
185 -> 186 ;
187 [label="X[637] <= 0.5\ngini = 0.444\nsamples = 6\nvalue = [0, 0, 4, 2, 0]"] ;
185 -> 187 ;
188 [label="gini = 0.0\nsamples = 4\nvalue = [0, 0, 4, 0, 0]"] ;
187 -> 188 ;
189 [label="gini = 0.0\nsamples = 2\nvalue = [0, 0, 0, 2, 0]"] ;
187 -> 189 ;
190 [label="gini = 0.0\nsamples = 5\nvalue = [0, 0, 0, 0, 5]"] ;
80 -> 190 ;
191 [label="gini = 0.0\nsamples = 7\nvalue = [0, 0, 0, 0, 7]"] ;
79 -> 191 ;
192 [label="X[454] <= 0.5\ngini = 0.508\nsamples = 31\nvalue = [8, 0, 3, 20, 0]"] ;
2 -> 192 ;
193 [label="X[421] <= 0.5\ngini = 0.408\nsamples = 28\nvalue = [8, 0, 0, 20, 0]"] ;
192 -> 193 ;
194 [label="X[220] <= 0.5\ngini = 0.32\nsamples = 25\nvalue = [5, 0, 0, 20, 0]"] ;
193 -> 194 ;
195 [label="X[566] <= 0.5\ngini = 0.227\nsamples = 23\nvalue = [3, 0, 0, 20, 0]"] ;
194 -> 195 ;
196 [label="X[548] <= 0.5\ngini = 0.091\nsamples = 21\nvalue = [1, 0, 0, 20, 0]"] ;
195 -> 196 ;
197 [label="gini = 0.0\nsamples = 20\nvalue = [0, 0, 0, 20, 0]"] ;
196 -> 197 ;
198 [label="gini = 0.0\nsamples = 1\nvalue = [1, 0, 0, 0, 0]"] ;
196 -> 198 ;
199 [label="gini = 0.0\nsamples = 2\nvalue = [2, 0, 0, 0, 0]"] ;
195 -> 199 ;
200 [label="gini = 0.0\nsamples = 2\nvalue = [2, 0, 0, 0, 0]"] ;
194 -> 200 ;
201 [label="gini = 0.0\nsamples = 3\nvalue = [3, 0, 0, 0, 0]"] ;
193 -> 201 ;
202 [label="gini = 0.0\nsamples = 3\nvalue = [0, 0, 3, 0, 0]"] ;
192 -> 202 ;
203 [label="X[679] <= 0.5\ngini = 0.698\nsamples = 81\nvalue = [11, 9, 8, 39, 14]"] ;
1 -> 203 ;
204 [label="X[28] <= 0.5\ngini = 0.645\nsamples = 72\nvalue = [6, 8, 5, 39, 14]"] ;
203 -> 204 ;
205 [label="X[615] <= 0.5\ngini = 0.612\nsamples = 68\nvalue = [6, 4, 5, 39, 14]"] ;
204 -> 205 ;
206 [label="X[159] <= 0.5\ngini = 0.585\nsamples = 64\nvalue = [6, 4, 5, 39, 10]"] ;
205 -> 206 ;
207 [label="X[706] <= 35.0\ngini = 0.549\nsamples = 61\nvalue = [6, 4, 2, 39, 10]"] ;
206 -> 207 ;
208 [label="X[115] <= 0.5\ngini = 0.64\nsamples = 5\nvalue = [2, 2, 0, 0, 1]"] ;
207 -> 208 ;
209 [label="X[509] <= 0.5\ngini = 0.444\nsamples = 3\nvalue = [2, 0, 0, 0, 1]"] ;
208 -> 209 ;
210 [label="gini = 0.0\nsamples = 2\nvalue = [2, 0, 0, 0, 0]"] ;
209 -> 210 ;
211 [label="gini = 0.0\nsamples = 1\nvalue = [0, 0, 0, 0, 1]"] ;
209 -> 211 ;
212 [label="gini = 0.0\nsamples = 2\nvalue = [0, 2, 0, 0, 0]"] ;
208 -> 212 ;
213 [label="X[629] <= 0.5\ngini = 0.482\nsamples = 56\nvalue = [4, 2, 2, 39, 9]"] ;
207 -> 213 ;
214 [label="X[445] <= 0.5\ngini = 0.444\nsamples = 54\nvalue = [4, 0, 2, 39, 9]"] ;
213 -> 214 ;
215 [label="X[585] <= 0.5\ngini = 0.405\nsamples = 52\nvalue = [2, 0, 2, 39, 9]"] ;
214 -> 215 ;
216 [label="X[52] <= 0.5\ngini = 0.369\nsamples = 50\nvalue = [2, 0, 2, 39, 7]"] ;
215 -> 216 ;
217 [label="X[551] <= 0.5\ngini = 0.326\nsamples = 48\nvalue = [2, 0, 2, 39, 5]"] ;
216 -> 217 ;
218 [label="X[215] <= 0.5\ngini = 0.273\nsamples = 46\nvalue = [2, 0, 2, 39, 3]"] ;
217 -> 218 ;
219 [label="X[634] <= 0.5\ngini = 0.21\nsamples = 44\nvalue = [2, 0, 2, 39, 1]"] ;
218 -> 219 ;
220 [label="X[428] <= 0.5\ngini = 0.173\nsamples = 43\nvalue = [2, 0, 2, 39, 0]"] ;
219 -> 220 ;
221 [label="X[56] <= 0.5\ngini = 0.135\nsamples = 42\nvalue = [1, 0, 2, 39, 0]"] ;
220 -> 221 ;
222 [label="X[324] <= 0.5\ngini = 0.093\nsamples = 41\nvalue = [0, 0, 2, 39, 0]"] ;
221 -> 222 ;
223 [label="X[213] <= 0.5\ngini = 0.049\nsamples = 40\nvalue = [0, 0, 1, 39, 0]"] ;
222 -> 223 ;
224 [label="gini = 0.0\nsamples = 39\nvalue = [0, 0, 0, 39, 0]"] ;
223 -> 224 ;
225 [label="gini = 0.0\nsamples = 1\nvalue = [0, 0, 1, 0, 0]"] ;
223 -> 225 ;
226 [label="gini = 0.0\nsamples = 1\nvalue = [0, 0, 1, 0, 0]"] ;
222 -> 226 ;
227 [label="gini = 0.0\nsamples = 1\nvalue = [1, 0, 0, 0, 0]"] ;
221 -> 227 ;
228 [label="gini = 0.0\nsamples = 1\nvalue = [1, 0, 0, 0, 0]"] ;
220 -> 228 ;
229 [label="gini = 0.0\nsamples = 1\nvalue = [0, 0, 0, 0, 1]"] ;
219 -> 229 ;
230 [label="gini = 0.0\nsamples = 2\nvalue = [0, 0, 0, 0, 2]"] ;
218 -> 230 ;
231 [label="gini = 0.0\nsamples = 2\nvalue = [0, 0, 0, 0, 2]"] ;
217 -> 231 ;
232 [label="gini = 0.0\nsamples = 2\nvalue = [0, 0, 0, 0, 2]"] ;
216 -> 232 ;
233 [label="gini = 0.0\nsamples = 2\nvalue = [0, 0, 0, 0, 2]"] ;
215 -> 233 ;
234 [label="gini = 0.0\nsamples = 2\nvalue = [2, 0, 0, 0, 0]"] ;
214 -> 234 ;
235 [label="gini = 0.0\nsamples = 2\nvalue = [0, 2, 0, 0, 0]"] ;
213 -> 235 ;
236 [label="gini = 0.0\nsamples = 3\nvalue = [0, 0, 3, 0, 0]"] ;
206 -> 236 ;
237 [label="gini = 0.0\nsamples = 4\nvalue = [0, 0, 0, 0, 4]"] ;
205 -> 237 ;
238 [label="gini = 0.0\nsamples = 4\nvalue = [0, 4, 0, 0, 0]"] ;
204 -> 238 ;
239 [label="X[51] <= 0.5\ngini = 0.568\nsamples = 9\nvalue = [5, 1, 3, 0, 0]"] ;
203 -> 239 ;
240 [label="X[147] <= 0.5\ngini = 0.449\nsamples = 7\nvalue = [5, 1, 1, 0, 0]"] ;
239 -> 240 ;
241 [label="X[145] <= 0.5\ngini = 0.278\nsamples = 6\nvalue = [5, 0, 1, 0, 0]"] ;
240 -> 241 ;
242 [label="gini = 0.0\nsamples = 5\nvalue = [5, 0, 0, 0, 0]"] ;
241 -> 242 ;
243 [label="gini = 0.0\nsamples = 1\nvalue = [0, 0, 1, 0, 0]"] ;
241 -> 243 ;
244 [label="gini = 0.0\nsamples = 1\nvalue = [0, 1, 0, 0, 0]"] ;
240 -> 244 ;
245 [label="gini = 0.0\nsamples = 2\nvalue = [0, 0, 2, 0, 0]"] ;
239 -> 245 ;
246 [label="gini = 0.0\nsamples = 8\nvalue = [0, 0, 0, 0, 8]"] ;
0 -> 246 [labeldistance=2.5, labelangle=-45, headlabel="False"] ;
}